#pragma once
//#include <cstdarg>
namespace Eloquent {
namespace ML {
namespace Port {
class RandomForest {
  public:
    /**
      Predict class for features vector
    */
    int predict(float *x) {
      uint8_t votes[4] = { 0 };
      // tree #1
      if (x[0] <= 0.07500000111758709) {
        votes[1] += 1;
      }

      else {
        if (x[1] <= 0.32500000298023224) {
          if (x[2] <= 0.2750000059604645) {
            if (x[2] <= 0.22500000149011612) {
              if (x[2] <= 0.17500000447034836) {
                votes[0] += 1;
              }

              else {
                if (x[1] <= 0.2750000059604645) {
                  votes[3] += 1;
                }

                else {
                  votes[0] += 1;
                }
              }
            }

            else {
              votes[3] += 1;
            }
          }

          else {
            if (x[0] <= 0.3750000149011612) {
              votes[2] += 1;
            }

            else {
              votes[3] += 1;
            }
          }
        }

        else {
          if (x[1] <= 0.4749999940395355) {
            if (x[2] <= 0.2750000059604645) {
              votes[0] += 1;
            }

            else {
              if (x[2] <= 0.45000000298023224) {
                votes[3] += 1;
              }

              else {
                votes[2] += 1;
              }
            }
          }

          else {
            if (x[2] <= 0.3999999910593033) {
              votes[0] += 1;
            }

            else {
              if (x[0] <= 0.6499999761581421) {
                votes[2] += 1;
              }

              else {
                votes[3] += 1;
              }
            }
          }
        }
      }

      // tree #2
      if (x[1] <= 0.12500000186264515) {
        votes[1] += 1;
      }

      else {
        if (x[1] <= 0.32500000298023224) {
          if (x[0] <= 0.32500000298023224) {
            if (x[2] <= 0.2500000074505806) {
              votes[0] += 1;
            }

            else {
              votes[2] += 1;
            }
          }

          else {
            votes[3] += 1;
          }
        }

        else {
          if (x[2] <= 0.2750000059604645) {
            votes[0] += 1;
          }

          else {
            if (x[0] <= 0.44999999552965164) {
              if (x[0] <= 0.1250000037252903) {
                votes[0] += 1;
              }

              else {
                if (x[0] <= 0.17500000447034836) {
                  if (x[2] <= 0.42499999701976776) {
                    votes[0] += 1;
                  }

                  else {
                    votes[2] += 1;
                  }
                }

                else {
                  votes[2] += 1;
                }
              }
            }

            else {
              votes[3] += 1;
            }
          }
        }
      }

      // tree #3
      if (x[1] <= 0.12500000186264515) {
        votes[1] += 1;
      }

      else {
        if (x[1] <= 0.32500000298023224) {
          if (x[2] <= 0.32500000298023224) {
            if (x[2] <= 0.2750000059604645) {
              if (x[2] <= 0.22500000149011612) {
                if (x[2] <= 0.17500000447034836) {
                  votes[0] += 1;
                }

                else {
                  if (x[1] <= 0.2750000059604645) {
                    votes[3] += 1;
                  }

                  else {
                    votes[0] += 1;
                  }
                }
              }

              else {
                votes[3] += 1;
              }
            }

            else {
              if (x[0] <= 0.350000012665987) {
                votes[2] += 1;
              }

              else {
                votes[3] += 1;
              }
            }
          }

          else {
            votes[2] += 1;
          }
        }

        else {
          if (x[0] <= 0.1250000037252903) {
            votes[0] += 1;
          }

          else {
            if (x[2] <= 0.5) {
              if (x[1] <= 0.550000011920929) {
                votes[3] += 1;
              }

              else {
                votes[0] += 1;
              }
            }

            else {
              votes[2] += 1;
            }
          }
        }
      }

      // tree #4
      if (x[2] <= 0.10000000335276127) {
        votes[1] += 1;
      }

      else {
        if (x[1] <= 0.32500000298023224) {
          if (x[1] <= 0.22500000149011612) {
            if (x[2] <= 0.2750000059604645) {
              if (x[0] <= 0.30000000074505806) {
                votes[0] += 1;
              }

              else {
                votes[3] += 1;
              }
            }

            else {
              votes[2] += 1;
            }
          }

          else {
            if (x[1] <= 0.2750000059604645) {
              if (x[2] <= 0.29999999701976776) {
                if (x[2] <= 0.17500000447034836) {
                  votes[0] += 1;
                }

                else {
                  votes[3] += 1;
                }
              }

              else {
                votes[2] += 1;
              }
            }

            else {
              if (x[0] <= 0.3750000149011612) {
                if (x[0] <= 0.1250000037252903) {
                  votes[0] += 1;
                }

                else {
                  votes[2] += 1;
                }
              }

              else {
                votes[3] += 1;
              }
            }
          }
        }

        else {
          if (x[2] <= 0.2750000059604645) {
            votes[0] += 1;
          }

          else {
            if (x[0] <= 0.4749999940395355) {
              if (x[0] <= 0.1250000037252903) {
                votes[0] += 1;
              }

              else {
                if (x[1] <= 0.5250000059604645) {
                  votes[2] += 1;
                }

                else {
                  if (x[0] <= 0.20000000298023224) {
                    votes[0] += 1;
                  }

                  else {
                    votes[2] += 1;
                  }
                }
              }
            }

            else {
              votes[3] += 1;
            }
          }
        }
      }

      // tree #5
      if (x[0] <= 0.4000000059604645) {
        if (x[0] <= 0.07500000111758709) {
          votes[1] += 1;
        }

        else {
          if (x[1] <= 0.32500000298023224) {
            if (x[0] <= 0.1250000037252903) {
              if (x[1] <= 0.2750000059604645) {
                if (x[1] <= 0.22500000149011612) {
                  votes[2] += 1;
                }

                else {
                  if (x[2] <= 0.25) {
                    votes[0] += 1;
                  }

                  else {
                    votes[2] += 1;
                  }
                }
              }

              else {
                votes[0] += 1;
              }
            }

            else {
              votes[2] += 1;
            }
          }

          else {
            if (x[2] <= 0.42499999701976776) {
              votes[0] += 1;
            }

            else {
              votes[2] += 1;
            }
          }
        }
      }

      else {
        votes[3] += 1;
      }

      // tree #6
      if (x[2] <= 0.10000000335276127) {
        votes[1] += 1;
      }

      else {
        if (x[1] <= 0.32500000298023224) {
          if (x[2] <= 0.32500000298023224) {
            if (x[1] <= 0.22500000149011612) {
              if (x[0] <= 0.30000000074505806) {
                if (x[2] <= 0.22500000894069672) {
                  votes[0] += 1;
                }

                else {
                  votes[2] += 1;
                }
              }

              else {
                votes[3] += 1;
              }
            }

            else {
              if (x[1] <= 0.2750000059604645) {
                if (x[2] <= 0.17500000447034836) {
                  votes[0] += 1;
                }

                else {
                  votes[3] += 1;
                }
              }

              else {
                if (x[2] <= 0.22500000149011612) {
                  votes[0] += 1;
                }

                else {
                  votes[3] += 1;
                }
              }
            }
          }

          else {
            votes[2] += 1;
          }
        }

        else {
          if (x[0] <= 0.1250000037252903) {
            votes[0] += 1;
          }

          else {
            if (x[1] <= 0.5250000059604645) {
              if (x[2] <= 0.4749999940395355) {
                votes[3] += 1;
              }

              else {
                votes[2] += 1;
              }
            }

            else {
              if (x[0] <= 0.20000000298023224) {
                votes[0] += 1;
              }

              else {
                votes[2] += 1;
              }
            }
          }
        }
      }

      // tree #7
      if (x[0] <= 0.07500000111758709) {
        votes[1] += 1;
      }

      else {
        if (x[2] <= 0.2750000059604645) {
          if (x[2] <= 0.22500000149011612) {
            if (x[2] <= 0.17500000447034836) {
              votes[0] += 1;
            }

            else {
              if (x[0] <= 0.30000000074505806) {
                votes[0] += 1;
              }

              else {
                votes[3] += 1;
              }
            }
          }

          else {
            if (x[1] <= 0.32500000298023224) {
              votes[3] += 1;
            }

            else {
              votes[0] += 1;
            }
          }
        }

        else {
          if (x[1] <= 0.2750000059604645) {
            votes[2] += 1;
          }

          else {
            if (x[1] <= 0.550000011920929) {
              if (x[2] <= 0.4749999940395355) {
                if (x[1] <= 0.32500000298023224) {
                  if (x[0] <= 0.3750000149011612) {
                    votes[2] += 1;
                  }

                  else {
                    votes[3] += 1;
                  }
                }

                else {
                  if (x[0] <= 0.3999999947845936) {
                    votes[0] += 1;
                  }

                  else {
                    votes[3] += 1;
                  }
                }
              }

              else {
                votes[2] += 1;
              }
            }

            else {
              if (x[0] <= 0.20000000298023224) {
                votes[0] += 1;
              }

              else {
                votes[2] += 1;
              }
            }
          }
        }
      }

      // tree #8
      if (x[2] <= 0.10000000335276127) {
        votes[1] += 1;
      }

      else {
        if (x[0] <= 0.4000000059604645) {
          if (x[1] <= 0.32500000298023224) {
            if (x[2] <= 0.2500000074505806) {
              votes[0] += 1;
            }

            else {
              votes[2] += 1;
            }
          }

          else {
            if (x[1] <= 0.699999988079071) {
              if (x[2] <= 0.42499999701976776) {
                votes[0] += 1;
              }

              else {
                votes[2] += 1;
              }
            }

            else {
              votes[2] += 1;
            }
          }
        }

        else {
          votes[3] += 1;
        }
      }

      // tree #9
      if (x[2] <= 0.10000000335276127) {
        votes[1] += 1;
      }

      else {
        if (x[1] <= 0.32500000298023224) {
          if (x[2] <= 0.32500000298023224) {
            if (x[2] <= 0.22500000149011612) {
              if (x[2] <= 0.17500000447034836) {
                votes[0] += 1;
              }

              else {
                if (x[0] <= 0.30000000074505806) {
                  votes[0] += 1;
                }

                else {
                  votes[3] += 1;
                }
              }
            }

            else {
              if (x[0] <= 0.30000000074505806) {
                votes[2] += 1;
              }

              else {
                votes[3] += 1;
              }
            }
          }

          else {
            votes[2] += 1;
          }
        }

        else {
          if (x[1] <= 0.4749999940395355) {
            if (x[2] <= 0.2750000059604645) {
              votes[0] += 1;
            }

            else {
              if (x[1] <= 0.42499999701976776) {
                if (x[1] <= 0.375) {
                  if (x[2] <= 0.42499999701976776) {
                    votes[3] += 1;
                  }

                  else {
                    votes[2] += 1;
                  }
                }

                else {
                  votes[3] += 1;
                }
              }

              else {
                if (x[2] <= 0.5499999970197678) {
                  if (x[0] <= 0.475000012665987) {
                    votes[0] += 1;
                  }

                  else {
                    votes[3] += 1;
                  }
                }

                else {
                  votes[2] += 1;
                }
              }
            }
          }

          else {
            if (x[1] <= 0.6749999821186066) {
              if (x[1] <= 0.550000011920929) {
                if (x[0] <= 0.6249999776482582) {
                  if (x[0] <= 0.1250000037252903) {
                    votes[0] += 1;
                  }

                  else {
                    votes[2] += 1;
                  }
                }

                else {
                  votes[3] += 1;
                }
              }

              else {
                votes[0] += 1;
              }
            }

            else {
              votes[2] += 1;
            }
          }
        }
      }

      // tree #10
      if (x[0] <= 0.3500000014901161) {
        if (x[0] <= 0.07500000111758709) {
          votes[1] += 1;
        }

        else {
          if (x[0] <= 0.1250000037252903) {
            if (x[2] <= 0.2750000059604645) {
              votes[0] += 1;
            }

            else {
              if (x[2] <= 0.32500000298023224) {
                if (x[1] <= 0.32499999552965164) {
                  votes[2] += 1;
                }

                else {
                  votes[0] += 1;
                }
              }

              else {
                votes[2] += 1;
              }
            }
          }

          else {
            if (x[1] <= 0.550000011920929) {
              votes[2] += 1;
            }

            else {
              votes[0] += 1;
            }
          }
        }
      }

      else {
        votes[3] += 1;
      }

      // tree #11
      if (x[0] <= 0.07500000111758709) {
        votes[1] += 1;
      }

      else {
        if (x[2] <= 0.2750000059604645) {
          if (x[2] <= 0.22500000149011612) {
            if (x[2] <= 0.17500000447034836) {
              votes[0] += 1;
            }

            else {
              if (x[1] <= 0.2750000059604645) {
                votes[3] += 1;
              }

              else {
                votes[0] += 1;
              }
            }
          }

          else {
            if (x[0] <= 0.30000000074505806) {
              votes[0] += 1;
            }

            else {
              votes[3] += 1;
            }
          }
        }

        else {
          if (x[2] <= 0.32500000298023224) {
            if (x[1] <= 0.2500000074505806) {
              votes[2] += 1;
            }

            else {
              if (x[1] <= 0.3999999910593033) {
                votes[3] += 1;
              }

              else {
                votes[0] += 1;
              }
            }
          }

          else {
            if (x[0] <= 0.5) {
              if (x[0] <= 0.1250000037252903) {
                votes[2] += 1;
              }

              else {
                if (x[1] <= 0.550000011920929) {
                  votes[2] += 1;
                }

                else {
                  if (x[0] <= 0.20000000298023224) {
                    votes[0] += 1;
                  }

                  else {
                    votes[2] += 1;
                  }
                }
              }
            }

            else {
              votes[3] += 1;
            }
          }
        }
      }

      // tree #12
      if (x[1] <= 0.12500000186264515) {
        votes[1] += 1;
      }

      else {
        if (x[2] <= 0.2750000059604645) {
          if (x[2] <= 0.22500000149011612) {
            if (x[0] <= 0.30000000074505806) {
              votes[0] += 1;
            }

            else {
              votes[3] += 1;
            }
          }

          else {
            if (x[0] <= 0.30000000074505806) {
              votes[0] += 1;
            }

            else {
              votes[3] += 1;
            }
          }
        }

        else {
          if (x[0] <= 0.45000001788139343) {
            if (x[2] <= 0.375) {
              if (x[0] <= 0.1250000037252903) {
                if (x[2] <= 0.32500000298023224) {
                  if (x[1] <= 0.32499999552965164) {
                    votes[2] += 1;
                  }

                  else {
                    votes[0] += 1;
                  }
                }

                else {
                  votes[2] += 1;
                }
              }

              else {
                if (x[2] <= 0.32500000298023224) {
                  votes[0] += 1;
                }

                else {
                  if (x[1] <= 0.42500001192092896) {
                    votes[2] += 1;
                  }

                  else {
                    votes[0] += 1;
                  }
                }
              }
            }

            else {
              votes[2] += 1;
            }
          }

          else {
            votes[3] += 1;
          }
        }
      }

      // tree #13
      if (x[0] <= 0.3500000014901161) {
        if (x[2] <= 0.10000000335276127) {
          votes[1] += 1;
        }

        else {
          if (x[1] <= 0.32500000298023224) {
            if (x[0] <= 0.1250000037252903) {
              if (x[1] <= 0.2750000059604645) {
                if (x[1] <= 0.22500000149011612) {
                  if (x[2] <= 0.22500000894069672) {
                    votes[0] += 1;
                  }

                  else {
                    votes[2] += 1;
                  }
                }

                else {
                  if (x[2] <= 0.25) {
                    votes[0] += 1;
                  }

                  else {
                    votes[2] += 1;
                  }
                }
              }

              else {
                votes[0] += 1;
              }
            }

            else {
              votes[2] += 1;
            }
          }

          else {
            if (x[1] <= 0.42499999701976776) {
              if (x[0] <= 0.1250000037252903) {
                votes[0] += 1;
              }

              else {
                votes[2] += 1;
              }
            }

            else {
              if (x[0] <= 0.1250000037252903) {
                votes[0] += 1;
              }

              else {
                if (x[1] <= 0.5250000059604645) {
                  votes[2] += 1;
                }

                else {
                  votes[0] += 1;
                }
              }
            }
          }
        }
      }

      else {
        votes[3] += 1;
      }

      // tree #14
      if (x[2] <= 0.10000000335276127) {
        votes[1] += 1;
      }

      else {
        if (x[2] <= 0.2750000059604645) {
          if (x[1] <= 0.2750000059604645) {
            if (x[1] <= 0.22500000149011612) {
              votes[3] += 1;
            }

            else {
              if (x[0] <= 0.30000000074505806) {
                votes[0] += 1;
              }

              else {
                votes[3] += 1;
              }
            }
          }

          else {
            if (x[1] <= 0.32500000298023224) {
              if (x[0] <= 0.350000012665987) {
                votes[0] += 1;
              }

              else {
                votes[3] += 1;
              }
            }

            else {
              votes[0] += 1;
            }
          }
        }

        else {
          if (x[2] <= 0.375) {
            if (x[2] <= 0.32500000298023224) {
              if (x[1] <= 0.2500000074505806) {
                votes[2] += 1;
              }

              else {
                if (x[0] <= 0.3750000149011612) {
                  votes[0] += 1;
                }

                else {
                  votes[3] += 1;
                }
              }
            }

            else {
              if (x[1] <= 0.29999999701976776) {
                votes[2] += 1;
              }

              else {
                if (x[0] <= 0.42499999701976776) {
                  votes[0] += 1;
                }

                else {
                  votes[3] += 1;
                }
              }
            }
          }

          else {
            if (x[2] <= 0.4749999940395355) {
              if (x[0] <= 0.5249999910593033) {
                votes[2] += 1;
              }

              else {
                votes[3] += 1;
              }
            }

            else {
              votes[2] += 1;
            }
          }
        }
      }

      // tree #15
      if (x[1] <= 0.12500000186264515) {
        votes[1] += 1;
      }

      else {
        if (x[1] <= 0.32500000298023224) {
          if (x[1] <= 0.22500000149011612) {
            if (x[2] <= 0.2500000074505806) {
              if (x[0] <= 0.30000000074505806) {
                votes[0] += 1;
              }

              else {
                votes[3] += 1;
              }
            }

            else {
              votes[2] += 1;
            }
          }

          else {
            if (x[0] <= 0.32500000298023224) {
              if (x[1] <= 0.2750000059604645) {
                if (x[0] <= 0.1250000037252903) {
                  if (x[2] <= 0.25) {
                    votes[0] += 1;
                  }

                  else {
                    votes[2] += 1;
                  }
                }

                else {
                  votes[2] += 1;
                }
              }

              else {
                if (x[2] <= 0.30000000447034836) {
                  votes[0] += 1;
                }

                else {
                  votes[2] += 1;
                }
              }
            }

            else {
              votes[3] += 1;
            }
          }
        }

        else {
          if (x[0] <= 0.1250000037252903) {
            votes[0] += 1;
          }

          else {
            if (x[1] <= 0.5250000059604645) {
              if (x[2] <= 0.4749999940395355) {
                votes[3] += 1;
              }

              else {
                votes[2] += 1;
              }
            }

            else {
              if (x[2] <= 0.7249999940395355) {
                votes[0] += 1;
              }

              else {
                votes[2] += 1;
              }
            }
          }
        }
      }

      // tree #16
      if (x[1] <= 0.12500000186264515) {
        votes[1] += 1;
      }

      else {
        if (x[1] <= 0.32500000298023224) {
          if (x[1] <= 0.22500000149011612) {
            if (x[2] <= 0.2750000059604645) {
              votes[3] += 1;
            }

            else {
              votes[2] += 1;
            }
          }

          else {
            if (x[2] <= 0.32500000298023224) {
              if (x[2] <= 0.22500000149011612) {
                if (x[2] <= 0.17500000447034836) {
                  votes[0] += 1;
                }

                else {
                  if (x[0] <= 0.30000000074505806) {
                    votes[0] += 1;
                  }

                  else {
                    votes[3] += 1;
                  }
                }
              }

              else {
                votes[3] += 1;
              }
            }

            else {
              votes[2] += 1;
            }
          }
        }

        else {
          if (x[2] <= 0.2750000059604645) {
            votes[0] += 1;
          }

          else {
            if (x[1] <= 0.550000011920929) {
              if (x[1] <= 0.4749999940395355) {
                if (x[2] <= 0.45000000298023224) {
                  if (x[1] <= 0.3999999910593033) {
                    votes[3] += 1;
                  }

                  else {
                    if (x[2] <= 0.3500000089406967) {
                      votes[0] += 1;
                    }

                    else {
                      votes[3] += 1;
                    }
                  }
                }

                else {
                  votes[2] += 1;
                }
              }

              else {
                if (x[0] <= 0.6249999776482582) {
                  if (x[0] <= 0.1250000037252903) {
                    votes[0] += 1;
                  }

                  else {
                    votes[2] += 1;
                  }
                }

                else {
                  votes[3] += 1;
                }
              }
            }

            else {
              if (x[1] <= 0.675000011920929) {
                votes[0] += 1;
              }

              else {
                votes[2] += 1;
              }
            }
          }
        }
      }

      // tree #17
      if (x[1] <= 0.12500000186264515) {
        votes[1] += 1;
      }

      else {
        if (x[2] <= 0.2750000059604645) {
          if (x[1] <= 0.2750000059604645) {
            if (x[0] <= 0.30000000074505806) {
              votes[0] += 1;
            }

            else {
              votes[3] += 1;
            }
          }

          else {
            if (x[0] <= 0.350000012665987) {
              votes[0] += 1;
            }

            else {
              votes[3] += 1;
            }
          }
        }

        else {
          if (x[0] <= 0.45000001788139343) {
            if (x[1] <= 0.5250000059604645) {
              if (x[1] <= 0.3999999910593033) {
                votes[2] += 1;
              }

              else {
                if (x[0] <= 0.1250000037252903) {
                  votes[0] += 1;
                }

                else {
                  votes[2] += 1;
                }
              }
            }

            else {
              if (x[1] <= 0.699999988079071) {
                votes[0] += 1;
              }

              else {
                votes[2] += 1;
              }
            }
          }

          else {
            votes[3] += 1;
          }
        }
      }

      // tree #18
      if (x[1] <= 0.12500000186264515) {
        votes[1] += 1;
      }

      else {
        if (x[0] <= 0.4000000059604645) {
          if (x[1] <= 0.32500000298023224) {
            if (x[0] <= 0.1250000037252903) {
              if (x[2] <= 0.2500000074505806) {
                votes[0] += 1;
              }

              else {
                votes[2] += 1;
              }
            }

            else {
              votes[2] += 1;
            }
          }

          else {
            if (x[1] <= 0.6500000059604645) {
              if (x[2] <= 0.42499999701976776) {
                votes[0] += 1;
              }

              else {
                votes[2] += 1;
              }
            }

            else {
              votes[2] += 1;
            }
          }
        }

        else {
          votes[3] += 1;
        }
      }

      // tree #19
      if (x[2] <= 0.12500000186264515) {
        votes[1] += 1;
      }

      else {
        if (x[0] <= 0.4000000059604645) {
          if (x[2] <= 0.2750000059604645) {
            votes[0] += 1;
          }

          else {
            if (x[2] <= 0.32500000298023224) {
              if (x[0] <= 0.1250000037252903) {
                if (x[1] <= 0.32499999552965164) {
                  votes[2] += 1;
                }

                else {
                  votes[0] += 1;
                }
              }

              else {
                votes[0] += 1;
              }
            }

            else {
              if (x[1] <= 0.550000011920929) {
                votes[2] += 1;
              }

              else {
                if (x[1] <= 0.675000011920929) {
                  votes[0] += 1;
                }

                else {
                  votes[2] += 1;
                }
              }
            }
          }
        }

        else {
          votes[3] += 1;
        }
      }

      // tree #20
      if (x[1] <= 0.12500000186264515) {
        votes[1] += 1;
      }

      else {
        if (x[1] <= 0.32500000298023224) {
          if (x[0] <= 0.32500000298023224) {
            if (x[2] <= 0.2500000074505806) {
              votes[0] += 1;
            }

            else {
              votes[2] += 1;
            }
          }

          else {
            votes[3] += 1;
          }
        }

        else {
          if (x[1] <= 0.4749999940395355) {
            if (x[0] <= 0.1250000037252903) {
              votes[0] += 1;
            }

            else {
              if (x[0] <= 0.42499999701976776) {
                votes[2] += 1;
              }

              else {
                votes[3] += 1;
              }
            }
          }

          else {
            if (x[2] <= 0.3999999910593033) {
              votes[0] += 1;
            }

            else {
              if (x[0] <= 0.6499999761581421) {
                votes[2] += 1;
              }

              else {
                votes[3] += 1;
              }
            }
          }
        }
      }

      // tree #21
      if (x[0] <= 0.07500000111758709) {
        votes[1] += 1;
      }

      else {
        if (x[0] <= 0.4000000059604645) {
          if (x[2] <= 0.2750000059604645) {
            votes[0] += 1;
          }

          else {
            if (x[2] <= 0.32500000298023224) {
              if (x[1] <= 0.3500000014901161) {
                votes[2] += 1;
              }

              else {
                votes[0] += 1;
              }
            }

            else {
              votes[2] += 1;
            }
          }
        }

        else {
          votes[3] += 1;
        }
      }

      // tree #22
      if (x[2] <= 0.10000000335276127) {
        votes[1] += 1;
      }

      else {
        if (x[2] <= 0.2750000059604645) {
          if (x[2] <= 0.22500000149011612) {
            if (x[0] <= 0.30000000074505806) {
              votes[0] += 1;
            }

            else {
              votes[3] += 1;
            }
          }

          else {
            if (x[1] <= 0.32500000298023224) {
              votes[3] += 1;
            }

            else {
              votes[0] += 1;
            }
          }
        }

        else {
          if (x[1] <= 0.2750000059604645) {
            votes[2] += 1;
          }

          else {
            if (x[1] <= 0.5250000059604645) {
              if (x[1] <= 0.32500000298023224) {
                if (x[0] <= 0.3750000149011612) {
                  votes[2] += 1;
                }

                else {
                  votes[3] += 1;
                }
              }

              else {
                if (x[1] <= 0.375) {
                  if (x[2] <= 0.42499999701976776) {
                    votes[3] += 1;
                  }

                  else {
                    votes[2] += 1;
                  }
                }

                else {
                  if (x[2] <= 0.5499999821186066) {
                    if (x[2] <= 0.32500000298023224) {
                      votes[0] += 1;
                    }

                    else {
                      votes[3] += 1;
                    }
                  }

                  else {
                    votes[2] += 1;
                  }
                }
              }
            }

            else {
              if (x[0] <= 0.22500000894069672) {
                votes[0] += 1;
              }

              else {
                votes[2] += 1;
              }
            }
          }
        }
      }

      // tree #23
      if (x[2] <= 0.10000000335276127) {
        votes[1] += 1;
      }

      else {
        if (x[1] <= 0.32500000298023224) {
          if (x[2] <= 0.32500000298023224) {
            if (x[0] <= 0.30000000074505806) {
              if (x[1] <= 0.22500000149011612) {
                votes[2] += 1;
              }

              else {
                votes[0] += 1;
              }
            }

            else {
              votes[3] += 1;
            }
          }

          else {
            votes[2] += 1;
          }
        }

        else {
          if (x[2] <= 0.2750000059604645) {
            votes[0] += 1;
          }

          else {
            if (x[1] <= 0.5250000059604645) {
              if (x[0] <= 0.44999999552965164) {
                if (x[2] <= 0.4000000059604645) {
                  votes[0] += 1;
                }

                else {
                  votes[2] += 1;
                }
              }

              else {
                votes[3] += 1;
              }
            }

            else {
              if (x[2] <= 0.7499999850988388) {
                votes[0] += 1;
              }

              else {
                votes[2] += 1;
              }
            }
          }
        }
      }

      // tree #24
      if (x[2] <= 0.10000000335276127) {
        votes[1] += 1;
      }

      else {
        if (x[0] <= 0.4000000059604645) {
          if (x[2] <= 0.2750000059604645) {
            votes[0] += 1;
          }

          else {
            if (x[1] <= 0.4749999940395355) {
              votes[2] += 1;
            }

            else {
              if (x[1] <= 0.699999988079071) {
                if (x[2] <= 0.5750000029802322) {
                  votes[0] += 1;
                }

                else {
                  votes[2] += 1;
                }
              }

              else {
                votes[2] += 1;
              }
            }
          }
        }

        else {
          votes[3] += 1;
        }
      }

      // tree #25
      if (x[2] <= 0.10000000335276127) {
        votes[1] += 1;
      }

      else {
        if (x[2] <= 0.2750000059604645) {
          if (x[2] <= 0.22500000149011612) {
            if (x[0] <= 0.30000000074505806) {
              votes[0] += 1;
            }

            else {
              votes[3] += 1;
            }
          }

          else {
            if (x[1] <= 0.32500000298023224) {
              votes[3] += 1;
            }

            else {
              votes[0] += 1;
            }
          }
        }

        else {
          if (x[2] <= 0.32500000298023224) {
            if (x[1] <= 0.2500000074505806) {
              votes[2] += 1;
            }

            else {
              if (x[0] <= 0.350000012665987) {
                votes[0] += 1;
              }

              else {
                votes[3] += 1;
              }
            }
          }

          else {
            if (x[2] <= 0.4749999940395355) {
              if (x[0] <= 0.45000000298023224) {
                if (x[1] <= 0.45000001788139343) {
                  votes[2] += 1;
                }

                else {
                  votes[0] += 1;
                }
              }

              else {
                votes[3] += 1;
              }
            }

            else {
              votes[2] += 1;
            }
          }
        }
      }

      // tree #26
      if (x[0] <= 0.07500000111758709) {
        votes[1] += 1;
      }

      else {
        if (x[1] <= 0.32500000298023224) {
          if (x[1] <= 0.22500000149011612) {
            if (x[0] <= 0.30000000074505806) {
              votes[2] += 1;
            }

            else {
              votes[3] += 1;
            }
          }

          else {
            if (x[0] <= 0.32500000298023224) {
              if (x[1] <= 0.2750000059604645) {
                if (x[2] <= 0.25) {
                  votes[0] += 1;
                }

                else {
                  votes[2] += 1;
                }
              }

              else {
                if (x[0] <= 0.1250000037252903) {
                  votes[0] += 1;
                }

                else {
                  votes[2] += 1;
                }
              }
            }

            else {
              votes[3] += 1;
            }
          }
        }

        else {
          if (x[1] <= 0.4749999940395355) {
            if (x[2] <= 0.2750000059604645) {
              votes[0] += 1;
            }

            else {
              if (x[1] <= 0.42499999701976776) {
                if (x[2] <= 0.42499999701976776) {
                  votes[3] += 1;
                }

                else {
                  votes[2] += 1;
                }
              }

              else {
                if (x[2] <= 0.5499999970197678) {
                  if (x[2] <= 0.3500000089406967) {
                    votes[0] += 1;
                  }

                  else {
                    votes[3] += 1;
                  }
                }

                else {
                  votes[2] += 1;
                }
              }
            }
          }

          else {
            if (x[1] <= 0.5250000059604645) {
              if (x[0] <= 0.6249999776482582) {
                if (x[0] <= 0.15000000223517418) {
                  votes[0] += 1;
                }

                else {
                  votes[2] += 1;
                }
              }

              else {
                votes[3] += 1;
              }
            }

            else {
              if (x[1] <= 0.6749999821186066) {
                votes[0] += 1;
              }

              else {
                votes[2] += 1;
              }
            }
          }
        }
      }

      // tree #27
      if (x[2] <= 0.10000000335276127) {
        votes[1] += 1;
      }

      else {
        if (x[0] <= 0.4000000059604645) {
          if (x[0] <= 0.1250000037252903) {
            if (x[2] <= 0.2750000059604645) {
              votes[0] += 1;
            }

            else {
              if (x[1] <= 0.3499999940395355) {
                votes[2] += 1;
              }

              else {
                votes[0] += 1;
              }
            }
          }

          else {
            if (x[2] <= 0.375) {
              if (x[1] <= 0.4000000059604645) {
                votes[2] += 1;
              }

              else {
                votes[0] += 1;
              }
            }

            else {
              votes[2] += 1;
            }
          }
        }

        else {
          votes[3] += 1;
        }
      }

      // tree #28
      if (x[2] <= 0.10000000335276127) {
        votes[1] += 1;
      }

      else {
        if (x[1] <= 0.32500000298023224) {
          if (x[0] <= 0.32500000298023224) {
            if (x[2] <= 0.2500000074505806) {
              votes[0] += 1;
            }

            else {
              votes[2] += 1;
            }
          }

          else {
            votes[3] += 1;
          }
        }

        else {
          if (x[0] <= 0.1250000037252903) {
            votes[0] += 1;
          }

          else {
            if (x[0] <= 0.4749999940395355) {
              if (x[1] <= 0.5250000059604645) {
                votes[2] += 1;
              }

              else {
                if (x[1] <= 0.6749999821186066) {
                  votes[0] += 1;
                }

                else {
                  votes[2] += 1;
                }
              }
            }

            else {
              votes[3] += 1;
            }
          }
        }
      }

      // tree #29
      if (x[1] <= 0.12500000186264515) {
        votes[1] += 1;
      }

      else {
        if (x[1] <= 0.32500000298023224) {
          if (x[2] <= 0.2750000059604645) {
            if (x[1] <= 0.2750000059604645) {
              if (x[1] <= 0.22500000149011612) {
                votes[3] += 1;
              }

              else {
                if (x[0] <= 0.30000000074505806) {
                  votes[0] += 1;
                }

                else {
                  votes[3] += 1;
                }
              }
            }

            else {
              if (x[0] <= 0.350000012665987) {
                votes[0] += 1;
              }

              else {
                votes[3] += 1;
              }
            }
          }

          else {
            if (x[1] <= 0.2750000059604645) {
              votes[2] += 1;
            }

            else {
              if (x[2] <= 0.3500000089406967) {
                votes[3] += 1;
              }

              else {
                votes[2] += 1;
              }
            }
          }
        }

        else {
          if (x[2] <= 0.2750000059604645) {
            votes[0] += 1;
          }

          else {
            if (x[2] <= 0.5) {
              if (x[2] <= 0.375) {
                if (x[0] <= 0.42499999701976776) {
                  votes[0] += 1;
                }

                else {
                  votes[3] += 1;
                }
              }

              else {
                votes[3] += 1;
              }
            }

            else {
              votes[2] += 1;
            }
          }
        }
      }

      // tree #30
      if (x[2] <= 0.10000000335276127) {
        votes[1] += 1;
      }

      else {
        if (x[1] <= 0.32500000298023224) {
          if (x[0] <= 0.32500000298023224) {
            if (x[1] <= 0.2750000059604645) {
              if (x[1] <= 0.22500000149011612) {
                votes[2] += 1;
              }

              else {
                if (x[2] <= 0.25) {
                  votes[0] += 1;
                }

                else {
                  votes[2] += 1;
                }
              }
            }

            else {
              if (x[2] <= 0.30000000447034836) {
                votes[0] += 1;
              }

              else {
                votes[2] += 1;
              }
            }
          }

          else {
            votes[3] += 1;
          }
        }

        else {
          if (x[0] <= 0.1250000037252903) {
            votes[0] += 1;
          }

          else {
            if (x[1] <= 0.5250000059604645) {
              if (x[2] <= 0.4749999940395355) {
                votes[3] += 1;
              }

              else {
                votes[2] += 1;
              }
            }

            else {
              votes[0] += 1;
            }
          }
        }
      }

      // return argmax of votes
      uint8_t classIdx = 0;
      float maxVotes = votes[0];

      for (uint8_t i = 1; i < 4; i++) {
        if (votes[i] > maxVotes) {
          classIdx = i;
          maxVotes = votes[i];
        }
      }

      return classIdx;
    }

    /**
      Predict readable class name
    */
    const char* predictLabel(float *x) {
      return idxToLabel(predict(x));
    }

    /**
      Convert class idx to readable name
    */
    const char* idxToLabel(uint8_t classIdx) {
      switch (classIdx) {
        case 0:
          return "Green";
        case 1:
          return "Ambient   Light";
        case 2:
          return "Blue";
        case 3:
          return "Red";
        default:
          return "Houston we have a problem";
      }
    }

  protected:
};
}
}
}
